0.480904549360275,-0.69511046516737,-0.563530065815079,-2.04024491427354,-0.0362010190572099,-0.645139445706814,-0.680874586105347,0.891774027391209,0.836984192919605,-0.380578399966222,0.292926440979972,0.376089210325476,0.643419027328491,0.207059580952204,0.683955603101884,0.646922357441126,0.859619654188034,-0.856604486765634,-0.246131300926209,-0.0817863291303508,-1.14541235874619,0.46247594393203,0.720229972703137,-1.02204604403751,0.933305740356445,-1.23726277686764,-1.53375364448386,-1.98282346651213,-0.30205932739252,-1.44845076923882,0.58796501159668,0.808969406329224,-1.08493640686676,-0.865055481472797,-0.0630570065013173,0.123161147153245,-0.363011717796326,0.559647620903052,1.46653178101913,0.561050560520675,-0.851995681365515,-0.0572699035389231,-0.226577639579773,0.18598847849566,0.148115123179534,0.670043331252249,-0.768080678400157,-1.88940733140985,-0.0328012704849243,-0.610246914091575,0.9415253118107,-0.463515770750618,-0.919058342119547,-1.14449435014034,-0.93712306022644,-0.98791226584187,-1.73689712253649,-1.19561026915903,-0.276105567801674,1.10579655705231,0.253330439329147,-1.0079497717605,-2.02307041082176,-1.31224315073068,0.314684874778642,0.0926303134617804,0.163097262382507,-0.452669947776822,1.05303821296781,0.224258816870858,-0.180761365397516,-1.90008461803931,-0.386898875236511,-0.0775892755213798,0.711563538800911,0.88665171682394,-0.325185231630533,-0.0978903002698022,0.336191147565842,-0.292744248745684,-0.0649128364889451,-0.138573508982496,0.709848659417275,-0.650025333011392,0.323811501264572,-1.93638295430311,-1.12849010399892,-0.73327812186028,0.0727164178635267,-0.988960523428048,0.157707333564758,0.0711312326158694,0.305012838059029,-0.577227974968895,-0.207880862932229,0.258313389514311,0.922691476378752,0.499069783089064,0.553693880148392,1.18016405749629,1.95913259112127,0.790433604075876,1.25546059627764,2.23961860163484,1.07230912930548,-0.340283872739643,0.592601375470112,2.09413074925449,0.836781782018159,0.31767255500955,0.99479257449514,0.673938757478878,-1.59838393711343,0.309499851578702,-1.05383020765586,-0.418939321504885,0.913859218432771,2.75549350763531,0.449380295100007,-1.31456729007621,0.492416126557339,-0.03730090273838,-0.00293174460286359,0.606565617135832,-0.379407189075603,-1.1022426053161,-0.4192326934638,1.54440906510969,-0.328740991175539,0.942044569396202,
