101.305425170581,101.370700839679,101.20466778032,101.184650871675,100.803508881252,100.664631876429,100.018407020053,100.557485374888,100.306523087701,100.930455002268,100.595928241334,100.189197500072,101.089196999393,101.071791012607,100.205841501079,99.8697631183262,100.971255404055,99.3155158582325,99.7733778777714,100.840510708391,102.899729005708,102.399000756158,102.785404197588,102.753930799379,102.98741959752,100.357065840089,100.279313011491,99.2081260219451,99.8391924634811,100.351200266206,101.091988658128,100.297223334727,100.955620145021,100.523313289104,100.209339623866,101.904405036909,101.317021915657,102.002257743818,100.835684010727,101.136096546394,101.779454958645,100.902792614905,101.201652687994,100.571936410872,101.072351378409,99.6244564228774,100.973901765895,99.8538651638747,101.167582290721,99.4128606491805,101.603728036515,102.073078136078,101.982448558442,100.993018726937,100.086076955429,98.4022158890687,99.6802526026689,99.3201540022813,97.8774650603257,99.5827274828874,101.645349465148,101.263971261518,100.285500250594,101.292773179548,101.299098424451,102.015003202984,101.59268131716,101.260980038473,101.089648036787,101.343470244238,100.227619527476,99.8943490969109,101.286490200655,100.745343326228,99.865328549044,100.366755277346,99.7229461078151,99.549651086758,100.236833841036,99.9904007319912,-100.172550468832,-99.5887233308853,-100.236537008673,-98.5703780941071,-99.7384695104659,-98.7598066619934,-99.0997392229141,-99.6299532941879,-100.09107330361,-98.7095010570587,-100.269802122504,-98.5858795932831,-99.0887295297684,-99.1151157907547,-100.149443416983,-98.6394675067963,-2.20855767938614,-2.25450332376481,-2.23847348901749,-1.09958110663416,-0.745475604267128,-1.79333062383653,-1.96096344205857,-1.47525592061997,-1.98251338216782,-1.28281627509119,-2.15413744661332,-2.43734700891496,-1.87702722761154,-0.839517190189375,-2.39843995782853,-1.5314707300377,
